digraph Tree {
node [shape=box, style="filled, rounded", color="black", fontname=helvetica] ;
edge [fontname=helvetica] ;
0 [label="MCARI_OSAVI <= 0.186\nmse = 0.235\nsamples = 53\nvalue = 2.903", fillcolor="#e5813975"] ;
1 [label="TCARI_OSAVI_RE <= 1.562\nmse = 0.111\nsamples = 43\nvalue = 2.716", fillcolor="#e581395e"] ;
0 -> 1 [labeldistance=2.5, labelangle=45, headlabel="True"] ;
2 [label="% LIMO <= 12.0\nmse = 0.018\nsamples = 5\nvalue = 3.087", fillcolor="#e581398b"] ;
1 -> 2 ;
3 [label="SPAD <= 43.25\nmse = 0.0\nsamples = 2\nvalue = 3.257", fillcolor="#e58139a0"] ;
2 -> 3 ;
4 [label="mse = 0.0\nsamples = 1\nvalue = 3.26", fillcolor="#e58139a0"] ;
3 -> 4 ;
5 [label="mse = 0.0\nsamples = 1\nvalue = 3.25", fillcolor="#e581399f"] ;
3 -> 5 ;
6 [label="x <= 673136.5\nmse = 0.008\nsamples = 3\nvalue = 3.014", fillcolor="#e5813982"] ;
2 -> 6 ;
7 [label="SPAD <= 37.45\nmse = 0.0\nsamples = 2\nvalue = 3.072", fillcolor="#e5813989"] ;
6 -> 7 ;
8 [label="mse = 0.0\nsamples = 1\nvalue = 3.08", fillcolor="#e581398a"] ;
7 -> 8 ;
9 [label="mse = -0.0\nsamples = 1\nvalue = 3.07", fillcolor="#e5813989"] ;
7 -> 9 ;
10 [label="mse = 0.0\nsamples = 1\nvalue = 2.87", fillcolor="#e5813971"] ;
6 -> 10 ;
11 [label="MCARI_OSAVI_RE <= 0.831\nmse = 0.098\nsamples = 38\nvalue = 2.648", fillcolor="#e5813956"] ;
1 -> 11 ;
12 [label="TCARI_OSAVI <= 1.505\nmse = 0.064\nsamples = 33\nvalue = 2.566", fillcolor="#e581394c"] ;
11 -> 12 ;
13 [label="y <= 2835117.0\nmse = 0.045\nsamples = 29\nvalue = 2.619", fillcolor="#e5813952"] ;
12 -> 13 ;
14 [label="CCCI_simpl <= 0.68\nmse = 0.029\nsamples = 25\nvalue = 2.663", fillcolor="#e5813958"] ;
13 -> 14 ;
15 [label="%Humedad <= 23.117\nmse = 0.031\nsamples = 7\nvalue = 2.813", fillcolor="#e581396a"] ;
14 -> 15 ;
16 [label="TCARI_OSAVI_RE <= 3.627\nmse = 0.015\nsamples = 5\nvalue = 2.72", fillcolor="#e581395f"] ;
15 -> 16 ;
17 [label="% ARCILLA <= 23.14\nmse = 0.003\nsamples = 4\nvalue = 2.767", fillcolor="#e5813964"] ;
16 -> 17 ;
18 [label="CI_green <= 4.801\nmse = 0.001\nsamples = 3\nvalue = 2.788", fillcolor="#e5813967"] ;
17 -> 18 ;
19 [label="mse = 0.0\nsamples = 1\nvalue = 2.76", fillcolor="#e5813964"] ;
18 -> 19 ;
20 [label="MTCI <= 1.132\nmse = 0.0\nsamples = 2\nvalue = 2.807", fillcolor="#e5813969"] ;
18 -> 20 ;
21 [label="mse = 0.0\nsamples = 1\nvalue = 2.81", fillcolor="#e581396a"] ;
20 -> 21 ;
22 [label="mse = 0.0\nsamples = 1\nvalue = 2.8", fillcolor="#e5813968"] ;
20 -> 22 ;
23 [label="mse = 0.0\nsamples = 1\nvalue = 2.66", fillcolor="#e5813957"] ;
17 -> 23 ;
24 [label="mse = -0.0\nsamples = 1\nvalue = 2.44", fillcolor="#e581393d"] ;
16 -> 24 ;
25 [label="x <= 673204.5\nmse = 0.001\nsamples = 2\nvalue = 3.03", fillcolor="#e5813984"] ;
15 -> 25 ;
26 [label="mse = 0.0\nsamples = 1\nvalue = 3.07", fillcolor="#e5813989"] ;
25 -> 26 ;
27 [label="mse = 0.0\nsamples = 1\nvalue = 3.01", fillcolor="#e5813982"] ;
25 -> 27 ;
28 [label="% ARCILLA <= 22.86\nmse = 0.017\nsamples = 18\nvalue = 2.606", fillcolor="#e5813951"] ;
14 -> 28 ;
29 [label="NDVI <= 0.821\nmse = 0.01\nsamples = 11\nvalue = 2.661", fillcolor="#e5813957"] ;
28 -> 29 ;
30 [label="CCCI_simpl <= 0.831\nmse = 0.004\nsamples = 7\nvalue = 2.613", fillcolor="#e5813952"] ;
29 -> 30 ;
31 [label="NDRE <= 0.201\nmse = 0.002\nsamples = 5\nvalue = 2.642", fillcolor="#e5813955"] ;
30 -> 31 ;
32 [label="mse = 0.0\nsamples = 1\nvalue = 2.53", fillcolor="#e5813948"] ;
31 -> 32 ;
33 [label="NO3-NH4 <= 24.672\nmse = 0.0\nsamples = 4\nvalue = 2.656", fillcolor="#e5813957"] ;
31 -> 33 ;
34 [label="NO3-NH4 <= 23.122\nmse = 0.0\nsamples = 2\nvalue = 2.678", fillcolor="#e581395a"] ;
33 -> 34 ;
35 [label="mse = 0.0\nsamples = 1\nvalue = 2.67", fillcolor="#e5813959"] ;
34 -> 35 ;
36 [label="mse = 0.0\nsamples = 1\nvalue = 2.68", fillcolor="#e581395a"] ;
34 -> 36 ;
37 [label="CCCI_simpl <= 0.796\nmse = 0.0\nsamples = 2\nvalue = 2.635", fillcolor="#e5813954"] ;
33 -> 37 ;
38 [label="mse = 0.0\nsamples = 1\nvalue = 2.63", fillcolor="#e5813954"] ;
37 -> 38 ;
39 [label="mse = 0.0\nsamples = 1\nvalue = 2.64", fillcolor="#e5813955"] ;
37 -> 39 ;
40 [label="% ARCILLA <= 21.68\nmse = 0.001\nsamples = 2\nvalue = 2.523", fillcolor="#e5813947"] ;
30 -> 40 ;
41 [label="mse = 0.0\nsamples = 1\nvalue = 2.49", fillcolor="#e5813943"] ;
40 -> 41 ;
42 [label="mse = 0.0\nsamples = 1\nvalue = 2.54", fillcolor="#e5813949"] ;
40 -> 42 ;
43 [label="NO3-NH4 <= 40.03\nmse = 0.007\nsamples = 4\nvalue = 2.757", fillcolor="#e5813963"] ;
29 -> 43 ;
44 [label="MCARI_OSAVI_RE <= 0.409\nmse = 0.002\nsamples = 3\nvalue = 2.724", fillcolor="#e581395f"] ;
43 -> 44 ;
45 [label="TCARI_OSAVI <= 0.702\nmse = 0.0\nsamples = 2\nvalue = 2.67", fillcolor="#e5813959"] ;
44 -> 45 ;
46 [label="mse = 0.0\nsamples = 1\nvalue = 2.65", fillcolor="#e5813956"] ;
45 -> 46 ;
47 [label="mse = 0.0\nsamples = 1\nvalue = 2.69", fillcolor="#e581395b"] ;
45 -> 47 ;
48 [label="mse = 0.0\nsamples = 1\nvalue = 2.76", fillcolor="#e5813964"] ;
44 -> 48 ;
49 [label="mse = -0.0\nsamples = 1\nvalue = 2.92", fillcolor="#e5813977"] ;
43 -> 49 ;
50 [label="MCARI_OSAVI_RE <= 0.437\nmse = 0.01\nsamples = 7\nvalue = 2.482", fillcolor="#e5813942"] ;
28 -> 50 ;
51 [label="%Humedad <= 21.577\nmse = 0.005\nsamples = 6\nvalue = 2.453", fillcolor="#e581393e"] ;
50 -> 51 ;
52 [label="y <= 2834723.5\nmse = 0.0\nsamples = 2\nvalue = 2.355", fillcolor="#e5813932"] ;
51 -> 52 ;
53 [label="mse = 0.0\nsamples = 1\nvalue = 2.37", fillcolor="#e5813934"] ;
52 -> 53 ;
54 [label="mse = 0.0\nsamples = 1\nvalue = 2.34", fillcolor="#e5813931"] ;
52 -> 54 ;
55 [label="TCARI_OSAVI_RE <= 1.844\nmse = 0.001\nsamples = 4\nvalue = 2.492", fillcolor="#e5813943"] ;
51 -> 55 ;
56 [label="MCARI_OSAVI_RE <= 0.235\nmse = 0.0\nsamples = 3\nvalue = 2.52", fillcolor="#e5813946"] ;
55 -> 56 ;
57 [label="TCARI_OSAVI <= 0.638\nmse = 0.0\nsamples = 2\nvalue = 2.505", fillcolor="#e5813945"] ;
56 -> 57 ;
58 [label="mse = 0.0\nsamples = 1\nvalue = 2.5", fillcolor="#e5813944"] ;
57 -> 58 ;
59 [label="mse = 0.0\nsamples = 1\nvalue = 2.51", fillcolor="#e5813945"] ;
57 -> 59 ;
60 [label="mse = 0.0\nsamples = 1\nvalue = 2.55", fillcolor="#e581394a"] ;
56 -> 60 ;
61 [label="mse = 0.0\nsamples = 1\nvalue = 2.45", fillcolor="#e581393e"] ;
55 -> 61 ;
62 [label="mse = -0.0\nsamples = 1\nvalue = 2.69", fillcolor="#e581395b"] ;
50 -> 62 ;
63 [label="CIred_edge <= 0.775\nmse = 0.039\nsamples = 4\nvalue = 2.3", fillcolor="#e581392c"] ;
13 -> 63 ;
64 [label="NDVI <= 0.811\nmse = 0.01\nsamples = 2\nvalue = 2.08", fillcolor="#e5813911"] ;
63 -> 64 ;
65 [label="mse = 0.0\nsamples = 1\nvalue = 2.18", fillcolor="#e581391d"] ;
64 -> 65 ;
66 [label="mse = 0.0\nsamples = 1\nvalue = 1.98", fillcolor="#e5813905"] ;
64 -> 66 ;
67 [label="MCARI_OSAVI_RE <= 0.321\nmse = 0.004\nsamples = 2\nvalue = 2.447", fillcolor="#e581393e"] ;
63 -> 67 ;
68 [label="mse = 0.0\nsamples = 1\nvalue = 2.49", fillcolor="#e5813943"] ;
67 -> 68 ;
69 [label="mse = 0.0\nsamples = 1\nvalue = 2.36", fillcolor="#e5813933"] ;
67 -> 69 ;
70 [label="CCCI_simpl <= 0.636\nmse = 0.009\nsamples = 4\nvalue = 2.128", fillcolor="#e5813917"] ;
12 -> 70 ;
71 [label="mse = 0.0\nsamples = 1\nvalue = 1.94", fillcolor="#e5813900"] ;
70 -> 71 ;
72 [label="TCARI_OSAVI_RE <= 6.013\nmse = 0.0\nsamples = 3\nvalue = 2.175", fillcolor="#e581391d"] ;
70 -> 72 ;
73 [label="mse = 0.0\nsamples = 1\nvalue = 2.17", fillcolor="#e581391c"] ;
72 -> 73 ;
74 [label="mse = 0.0\nsamples = 2\nvalue = 2.18", fillcolor="#e581391d"] ;
72 -> 74 ;
75 [label="SPAD <= 50.15\nmse = 0.056\nsamples = 5\nvalue = 3.071", fillcolor="#e5813989"] ;
11 -> 75 ;
76 [label="% ARCILLA <= 13.68\nmse = 0.012\nsamples = 3\nvalue = 2.918", fillcolor="#e5813977"] ;
75 -> 76 ;
77 [label="mse = 0.0\nsamples = 1\nvalue = 2.68", fillcolor="#e581395a"] ;
76 -> 77 ;
78 [label="%Humedad <= 19.627\nmse = 0.0\nsamples = 2\nvalue = 2.966", fillcolor="#e581397d"] ;
76 -> 78 ;
79 [label="mse = -0.0\nsamples = 1\nvalue = 2.95", fillcolor="#e581397b"] ;
78 -> 79 ;
80 [label="mse = -0.0\nsamples = 1\nvalue = 2.99", fillcolor="#e5813980"] ;
78 -> 80 ;
81 [label="CI_green <= 7.671\nmse = 0.004\nsamples = 2\nvalue = 3.377", fillcolor="#e58139ae"] ;
75 -> 81 ;
82 [label="mse = 0.0\nsamples = 1\nvalue = 3.33", fillcolor="#e58139a9"] ;
81 -> 82 ;
83 [label="mse = -0.0\nsamples = 1\nvalue = 3.47", fillcolor="#e58139ba"] ;
81 -> 83 ;
84 [label="M.O. <= 2.084\nmse = 0.069\nsamples = 10\nvalue = 3.617", fillcolor="#e58139cc"] ;
0 -> 84 [labeldistance=2.5, labelangle=-45, headlabel="False"] ;
85 [label="GNDVI <= 0.34\nmse = 0.014\nsamples = 5\nvalue = 3.817", fillcolor="#e58139e4"] ;
84 -> 85 ;
86 [label="mse = 0.0\nsamples = 1\nvalue = 4.04", fillcolor="#e58139ff"] ;
85 -> 86 ;
87 [label="TCARI_OSAVI <= 1.367\nmse = 0.002\nsamples = 4\nvalue = 3.761", fillcolor="#e58139dd"] ;
85 -> 87 ;
88 [label="TCARI_OSAVI <= 1.258\nmse = 0.0\nsamples = 2\nvalue = 3.84", fillcolor="#e58139e7"] ;
87 -> 88 ;
89 [label="mse = 0.0\nsamples = 1\nvalue = 3.82", fillcolor="#e58139e4"] ;
88 -> 89 ;
90 [label="mse = -0.0\nsamples = 1\nvalue = 3.86", fillcolor="#e58139e9"] ;
88 -> 90 ;
91 [label="M.O. <= 0.604\nmse = 0.0\nsamples = 2\nvalue = 3.735", fillcolor="#e58139da"] ;
87 -> 91 ;
92 [label="mse = 0.0\nsamples = 1\nvalue = 3.75", fillcolor="#e58139dc"] ;
91 -> 92 ;
93 [label="mse = -0.0\nsamples = 1\nvalue = 3.72", fillcolor="#e58139d8"] ;
91 -> 93 ;
94 [label="MCARI_OSAVI <= 0.251\nmse = 0.009\nsamples = 5\nvalue = 3.331", fillcolor="#e58139a9"] ;
84 -> 94 ;
95 [label="y <= 2834665.0\nmse = 0.01\nsamples = 3\nvalue = 3.413", fillcolor="#e58139b3"] ;
94 -> 95 ;
96 [label="mse = 0.0\nsamples = 1\nvalue = 3.27", fillcolor="#e58139a2"] ;
95 -> 96 ;
97 [label="%Humedad <= 16.578\nmse = 0.0\nsamples = 2\nvalue = 3.485", fillcolor="#e58139bc"] ;
95 -> 97 ;
98 [label="mse = 0.0\nsamples = 1\nvalue = 3.49", fillcolor="#e58139bc"] ;
97 -> 98 ;
99 [label="mse = -0.0\nsamples = 1\nvalue = 3.48", fillcolor="#e58139bb"] ;
97 -> 99 ;
100 [label="M.O. <= 2.752\nmse = 0.0\nsamples = 2\nvalue = 3.27", fillcolor="#e58139a1"] ;
94 -> 100 ;
101 [label="mse = 0.0\nsamples = 1\nvalue = 3.26", fillcolor="#e58139a0"] ;
100 -> 101 ;
102 [label="mse = 0.0\nsamples = 1\nvalue = 3.28", fillcolor="#e58139a3"] ;
100 -> 102 ;
}